digraph Tree {
node [shape=box, style="filled, rounded", color="black", fontname="helvetica"] ;
edge [fontname="helvetica"] ;
0 [label="petal width (cm) <= 0.8\ngini = 0.66\nsamples = 91\nvalue = [45, 59, 46]\nclass = versicolor", fillcolor="#e6fcef"] ;
1 [label="gini = 0.0\nsamples = 25\nvalue = [45, 0, 0]\nclass = setosa", fillcolor="#e58139"] ;
0 -> 1 [labeldistance=2.5, labelangle=45, headlabel="True"] ;
2 [label="petal width (cm) <= 1.65\ngini = 0.49\nsamples = 66\nvalue = [0, 59, 46]\nclass = versicolor", fillcolor="#d3f9e3"] ;
0 -> 2 [labeldistance=2.5, labelangle=-45, headlabel="False"] ;
3 [label="sepal length (cm) <= 7.1\ngini = 0.09\nsamples = 41\nvalue = [0, 59, 3]\nclass = versicolor", fillcolor="#43e687"] ;
2 -> 3 ;
4 [label="sepal width (cm) <= 2.25\ngini = 0.06\nsamples = 40\nvalue = [0, 59, 2]\nclass = versicolor", fillcolor="#40e685"] ;
3 -> 4 ;
5 [label="petal length (cm) <= 4.75\ngini = 0.28\nsamples = 3\nvalue = [0, 5, 1]\nclass = versicolor", fillcolor="#61ea9a"] ;
4 -> 5 ;
6 [label="gini = 0.0\nsamples = 2\nvalue = [0, 5, 0]\nclass = versicolor", fillcolor="#39e581"] ;
5 -> 6 ;
7 [label="gini = 0.0\nsamples = 1\nvalue = [0, 0, 1]\nclass = virginica", fillcolor="#8139e5"] ;
5 -> 7 ;
8 [label="petal length (cm) <= 5.35\ngini = 0.04\nsamples = 37\nvalue = [0, 54, 1]\nclass = versicolor", fillcolor="#3de583"] ;
4 -> 8 ;
9 [label="gini = 0.0\nsamples = 36\nvalue = [0, 54, 0]\nclass = versicolor", fillcolor="#39e581"] ;
8 -> 9 ;
10 [label="gini = 0.0\nsamples = 1\nvalue = [0, 0, 1]\nclass = virginica", fillcolor="#8139e5"] ;
8 -> 10 ;
11 [label="gini = 0.0\nsamples = 1\nvalue = [0, 0, 1]\nclass = virginica", fillcolor="#8139e5"] ;
3 -> 11 ;
12 [label="gini = 0.0\nsamples = 25\nvalue = [0, 0, 43]\nclass = virginica", fillcolor="#8139e5"] ;
2 -> 12 ;
}